{"weights":[{"row":11,"column":16,"elements":[0.9215443264693022,-1.977178692817688,0.7690356182865799,-0.576656049117446,-0.20034778118133546,-0.49356919527053835,0.37710971385240557,0.2883419953286648,-0.3614122197031975,-0.15008133184164763,-0.5709184259176254,-0.12210017815232277,-0.3545626332052052,0.3564609964378178,0.11287971609272063,-0.7202850729227066,1.1215917356312276,-1.006859164685011,0.6364975515753031,0.20414813049137593,0.5803655367344618,0.3449676902964711,-0.2782365996390581,-0.6180477933958173,0.1773520465940237,0.9202782801003195,-0.10608456283807755,0.7726889876648784,0.08058711886405945,-0.08554947795346379,0.2766963317990303,1.083819929510355,-0.29206979100126775,-0.6040138192474842,0.8400615695863962,-0.13506440655328334,0.498378723859787,0.6807602383196354,-0.3820890672504902,0.24134301207959653,-0.6220384095795453,0.5824644388812885,1.0153517536818982,0.13976519461721183,0.08288852125406265,0.33995816111564639,-0.34506940841674807,0.2238182481378317,0.20517790131270886,-0.9284251630306244,-0.6362802088260651,0.7586840987205505,0.02848254144191742,2.4236382953822614,0.059977173805236819,0.772968877106905,0.9645998477935791,-0.37838073819875719,0.5103634484112263,0.6980830244719982,-0.42164931539446118,0.1449203547090292,0.2890588939189911,0.0661630854010582,-0.6714718992006965,0.5508151480462402,0.873266413807869,-0.1332617960870266,-0.1968694335082546,-0.6362629756331444,0.7146544922143221,-0.3202231442555785,0.9177647083997726,-0.06342302041593939,0.7638593334704638,-0.5286725051701069,0.22077485173940659,1.093976255506277,0.8016556799411774,-0.49216869473457339,-0.028980424627661706,-0.632132600992918,-0.7293944787234068,0.026312418282032014,0.07615197915583849,0.7887242152355611,-0.6693935692310333,-0.008754435926675797,-1.9974471367895604,0.7705339144449681,0.4874518010765314,-0.7967800945043564,0.6908221244812012,0.014777040109038353,-0.5896379454061389,-0.7143524885177612,0.7279394282959402,1.323590636253357,-0.23845228925347329,1.4819088838994504,-0.6549983229488134,0.3247036952525377,0.5933128967881203,0.734375829808414,0.3266008757054806,0.6426617745310068,-1.076327595859766,-0.8200813382863998,-0.5275157624855638,0.2271822690963745,-0.5845043659210205,-0.776722390204668,-0.5570293962955475,-0.6273464546538889,1.214764330536127,-0.005133351311087608,0.2155678542330861,0.16753369569778443,0.7784628327935934,0.6868284288793802,-0.23799391370266677,-0.49143489450216296,-0.6796040441840887,0.5339984074234963,-0.16571342945098878,0.17067459621466697,-0.3957777628675103,0.8375448901206255,-0.46344689978286626,-0.9141772715374827,-0.4965976462699473,-0.3425574880093336,-0.3550487239845097,-0.553687334060669,-0.3542099595069885,0.3437719810754061,-0.6721140071749687,-0.36906122229993346,0.2915772832930088,0.017360568046569825,-0.5472928769886494,0.9492232464253902,-0.6627834825194441,-0.7386908445041627,0.4678642675280571,0.33269723132252695,-0.283181831240654,1.1352515295147896,0.03554770536720753,-0.2612422648817301,-0.31072215363383295,-0.9063851181417704,0.9366053342819214,0.9742150008678436,0.5039549879729748,-1.0362426082137973,-0.6393988104537129,0.5782787874341011,-0.9386645713821054,-0.024172632955014707,-0.052744220942258838,0.09273959323763848,0.06375277321785689,1.261970404535532,-0.3665533550083637,-0.441591814160347,-0.31615669280290606,-0.7874041050672531,-0.021394216921180488,-0.9038540050387383,-0.9601419847458601,-0.5464961025863886,-0.22188681364059449,0.4400048506213352,0.6442385278642178,0.2637881438713521]},{"row":16,"column":3,"elements":[0.9450252540409565,0.650540616363287,-0.30854405742138626,-0.4376760795712471,-0.4821392297744751,0.15117276355158539,0.04263566620647907,-1.0230487491935492,-0.3621563259512186,0.5250236764550209,-0.5400745300576091,0.45351141691207888,0.1855168230831623,-0.35041722282767298,-0.7181299868971109,-0.8285227618180215,0.668746143579483,-0.8322579320520163,0.7775308201089501,-0.11376033909618855,0.11689773038960993,-0.1547464536924963,-1.0617320998571814,0.6576275825500488,-0.8208538666367531,0.4800882861018181,-0.5874475836753845,0.7449304349720478,0.061555687338113788,0.5383258238434792,-0.1543754506856203,0.8269962035119534,0.5742479152977467,-0.3710330240428448,0.934769868850708,-0.3112941309809685,-0.17437707539647818,-0.7213809043169022,-0.7754957906436175,-0.8695368766784668,0.560868825763464,-0.35955068469047549,0.08532883413136006,-0.3582635074853897,-0.6332897190004587,0.4199163755401969,-0.20725269988179208,-0.6441411580890417]}],"biases":[{"row":1,"column":16,"elements":[0.20866559445858003,0.21407347824424506,-0.4322425164282322,0.6910478658974171,-0.30431025475263598,-0.7704364908859134,-0.5051234606653452,-0.6252978092525154,-2.2336342288181187,-0.7646931379567832,0.8288209550082684,0.0038950014859437944,0.4242108725011349,0.8852601870894432,0.013859342783689499,0.011845659231767059]},{"row":1,"column":3,"elements":[-1.0129162706434727,-0.038245173171162608,-0.4745367541909218]}],"inputSize":11,"hiddenSize":16,"hiddenLayers":1,"outputSize":3}