{"weights":[{"row":17,"column":8,"elements":[0.05718784313648939,-0.5190001428127289,-0.2579657179303467,-0.45690642297267916,0.0551551878452301,-0.01676664501428604,-0.74463801831007,0.5691150296479464,0.813679926097393,0.5029278714209795,-0.09318724274635315,0.18869007844477893,-0.465845562517643,0.9359795227646828,-0.47491466626524928,0.5661826381692663,0.23078002408146859,-1.1003685966134072,1.019227767828852,-0.5973316822201014,0.49202094599604609,0.7954705748707056,0.6338425939902663,0.9029428511857987,-0.12990631721913815,-1.106740441173315,0.8261016327887774,-0.76627541705966,-0.15955913066864015,0.048916153609752658,1.0203874111175538,0.25116949155926707,-0.8873667828738689,-0.6047943569719791,0.7678202241659164,0.039719651453197,-0.6047411218751222,-0.4715057930443436,0.5513236001133919,0.3697931542992592,-0.6712473295629025,0.6187742576003075,0.14850933710113169,-0.7850110019790009,0.25635037012398245,0.8561652600765228,-0.5808140859007835,0.6542859766632319,0.15791538474150003,-0.0012010131031274796,-0.8638089969754219,0.11348079890012741,-0.4427397344261408,-0.09833887778222561,-0.39977096021175387,-0.0588812759378925,-0.23528369516134263,-0.2636647894978523,-0.9586875438690186,1.2015265822410584,0.5039373217150569,0.9675244800746441,-0.4135840404778719,-0.9255319908261299,-0.4141664057970047,1.1496114768087865,-0.555456561036408,0.6677384888753295,0.6000061333179474,0.5314495414495468,-0.48719674174208196,-0.14735445752739907,-0.029693130403757097,0.11906312126666308,-0.8086386919021606,0.6256378404796124,0.6389068700373173,-0.9634619038552046,0.23880863189697267,0.6233898443169892,0.8363340352661908,-0.10771384090185166,-0.8420141206588596,-0.45526260510087016,2.1221115838270636,0.07651959219947458,0.37390642054378989,-0.8972155526280403,0.2026706114411354,-0.5797249674797058,1.0610874481499196,-0.9213853105902672,0.3532209098339081,0.16767199337482453,0.9456819007173181,0.8337026676163077,-0.6706756725907326,0.6021420918405056,-0.6835814192891121,0.13021161779761315,-0.9230714878067374,0.20178532227873803,0.6319840071373619,0.8965658936649561,-0.03549197153188288,-0.7084877970046364,1.0089536919840612,0.258215535315685,0.1523374319076538,0.4466840699315071,-0.39401230961084368,-1.1191641129553319,0.26152266934514048,0.1371292918920517,0.17696309741586448,0.22579069063067437,0.8194343037903309,0.2424378115683794,0.21128489822149278,0.10350706055760384,-0.9478073179489002,-0.3463952918536961,0.6220495849847794,-0.3414071351289749,-0.26187323965132239,-0.015551563818007708,-0.665869521908462,0.38470287900418045,-0.40715046878904107,-0.2461741417646408,-0.050051454454660419,-0.9071580562740564,0.2958958176895976,-0.17273913510143758,-0.17369802109897138,0.38048400171101096]},{"row":8,"column":4,"elements":[1.0158558804541827,-0.6271822974085808,-0.7114178258925676,0.5521028731018305,0.11298196017742157,-0.610268983989954,0.4306559506803751,0.1260856855660677,0.9414868461899459,0.5861938484013081,-0.505076427012682,0.23909729719161988,-0.36380377784371378,-0.6984261907637119,0.19393927417695523,0.4263361915946007,-0.46010820660740139,-0.9867259236052632,0.22823506500571967,1.0735976416617633,0.7918126583099365,-0.4304029643535614,-0.2782004876062274,-0.3071890324354172,-1.0565116927027703,0.04776771739125252,0.25264572352170946,0.5913007380440831,0.8434374500066042,0.9066041950136423,-1.1398780590388924,0.08710205554962158]}],"biases":[{"row":1,"column":8,"elements":[0.2366363313049078,-1.1814075633883477,0.963520310819149,0.8358525112271309,0.03844487387686968,0.14454655000008644,0.9441954381763935,0.620740014128387]},{"row":1,"column":4,"elements":[-0.2738083377480507,0.7462449744343758,-0.006539754569530487,-0.41588763892650607]}],"inputSize":17,"hiddenSize":8,"hiddenLayers":1,"outputSize":4}