{"weights":[{"row":11,"column":16,"elements":[-0.42221885919570925,-0.6821059584617615,1.2789063453674317,0.9213703870773315,1.3377842903137208,0.7713130116462708,-0.5009687542915344,-0.3997108042240143,-0.26234540343284609,-0.7006042003631592,1.209815502166748,0.07263485342264176,-0.28973475098609927,0.7527033090591431,-0.9124112129211426,0.41640838980674746,-1.3220621347427369,-0.23087328672409059,0.353486567735672,-0.6437429189682007,0.9798989295959473,-1.1501039266586304,0.5213552713394165,1.0707271099090577,0.32548338174819949,0.03729603812098503,0.13888350129127503,0.40636420249938967,-0.30333080887794497,-0.17135663330554963,2.1057088375091554,1.0324610471725464,0.6416573524475098,1.4276278018951417,1.0076770782470704,-0.16777606308460236,0.7879133224487305,-0.0692494809627533,-0.45047956705093386,0.1669473499059677,0.4524019658565521,-0.7437366843223572,-2.6851253509521486,0.0013797521824017168,0.501878023147583,-0.0032486950512975456,0.48552483320236208,-0.800959587097168,0.5046752095222473,-0.7520111799240112,-1.108838438987732,0.8801254034042358,1.4878491163253785,-0.41591835021972659,-1.6053365468978882,-1.1880483627319337,0.22536100447177888,1.9203146696090699,-1.0458160638809205,-2.7151243686676027,0.8414047956466675,-1.283203125,0.8624586462974548,-1.958654761314392,0.4382052719593048,-0.07840224355459213,-0.5077131986618042,1.444003701210022,0.6918637156486511,1.1753885746002198,-0.4115056097507477,-2.1848998069763185,-0.03124583698809147,0.1397693008184433,-0.18750247359275819,0.09918880462646485,1.8467249870300294,-0.38629478216171267,-1.0842539072036744,-0.6490105986595154,-0.16699939966201783,-0.6731086373329163,-0.21700848639011384,0.4670356214046478,1.1731643676757813,1.0342446565628052,-0.22513040900230409,-1.3951486349105836,0.9820157289505005,-1.5252265930175782,0.7776449918746948,0.8999662399291992,0.8558847308158875,-0.14859642088413239,-0.11024560779333115,-1.0747517347335816,0.4513145387172699,-0.049672212451696399,0.7367662787437439,1.8353344202041627,1.3527798652648926,-1.433036208152771,-0.18336878716945649,0.29979613423347475,-0.8350797891616821,1.272003412246704,-0.385027140378952,-1.842625617980957,0.06367172300815582,-0.25476154685020449,-1.4925460815429688,1.3152828216552735,-1.5414026975631714,-0.15753154456615449,0.7063595056533814,1.183502435684204,0.272090345621109,1.5529512166976929,0.22582684457302094,0.6172341108322144,-1.7898145914077759,-1.254259467124939,0.0873536467552185,-1.320499062538147,-0.6259229779243469,-0.8377073407173157,1.6616774797439576,-1.3943289518356324,0.48191481828689577,-0.0956033393740654,1.5938695669174195,-0.11610765010118485,-0.2560812830924988,-2.699798107147217,-1.1078180074691773,0.1018981784582138,-0.9347599744796753,-0.32560256123542788,-0.42963895201683047,-2.4305150508880617,1.0697438716888428,0.3484470844268799,0.943208634853363,0.2583847939968109,-0.3175417482852936,0.17678873240947724,-1.2547746896743775,-0.6238178014755249,-0.27202755212783816,0.25661516189575198,-0.874152660369873,0.36957281827926638,-1.403296947479248,-1.2508749961853028,0.12203037738800049,-0.5501747131347656,-0.25100162625312807,-0.35552066564559939,1.0883216857910157,1.3312164545059205,-1.380895733833313,-1.3802130222320557,0.6518080234527588,0.6046893000602722,-1.6639866828918458,0.809990406036377,1.521419644355774,-0.9012083411216736,-0.525261402130127,-0.6421377658843994,-0.12379596382379532,-0.5374585390090942,0.3025082051753998,0.7294176816940308,-1.8851226568222047,-0.0914272889494896]},{"row":16,"column":2,"elements":[-0.7633255124092102,-1.8357644081115723,-0.3369016945362091,-1.0315219163894654,1.9102392196655274,-0.030003424733877183,0.3237009048461914,-0.728789746761322,0.8187285661697388,-0.20330531895160676,-0.3107764422893524,0.20519733428955079,0.3268970251083374,-0.0725162923336029,0.8752638101577759,-0.7406535744667053,0.9409493207931519,-0.08822151273488999,-1.604394555091858,1.2172808647155762,0.36419472098350527,0.22160838544368745,1.5137585401535035,-0.2414848655462265,-0.7779859304428101,0.853712797164917,1.5614149570465088,-0.8304029703140259,-0.011956685222685337,-0.3815750777721405,1.157060980796814,-0.6250686049461365]}],"biases":[{"row":1,"column":16,"elements":[-0.48691627383232119,1.6600717306137086,-0.7265905737876892,-1.0600374937057496,0.6558722853660584,-0.9544472098350525,-1.6047046184539796,-0.6768537163734436,-0.037248216569423679,1.7523794174194337,0.36845633387565615,0.2838485538959503,1.035441517829895,1.5844043493270875,-0.8081807494163513,0.2717563509941101]},{"row":1,"column":2,"elements":[-0.6336527466773987,1.4015763998031617]}],"inputSize":11,"hiddenSize":16,"hiddenLayers":1,"outputSize":2}