{"weights":[{"row":7,"column":8,"elements":[-0.07092618197202683,-0.9937536716461182,-0.28231894969940188,-0.3322421619668603,-0.10722815990447998,-0.042132019996643069,-0.7650701999664307,-0.1000744104385376,-0.9936909675598145,0.4264837298542261,0.6475785714574158,0.8837221264839172,0.9990105628967285,-0.46264252811670306,0.3316974341869354,-0.7156875133514404,0.99399733543396,0.8206627368927002,-0.7183074951171875,-0.73145766928792,-0.9548990726470947,-0.18239939212799073,-0.49239933490753176,0.9492776617407799,0.27707502245903017,-0.7138915210962296,-0.495843768119812,0.1322699785232544,0.08322007954120636,0.8388464450836182,0.534003734588623,-0.8906179368495941,-0.7962646484375,0.40437743067741396,-0.4349924325942993,-0.600530456751585,-0.8571274280548096,0.6498560905456543,-0.25848305225372317,-0.8314418718218803,1.0531426668167115,0.05985438823699951,-0.37263333797454836,0.07631957530975342,-0.21015389263629914,0.2884328067302704,0.5222063064575195,-0.6246888637542725,0.4726278483867645,0.1603521928191185,-0.31898486614227297,-0.28128278255462649,-0.24618026346433909,0.1011432409286499,0.5692129135131836,-0.7350633144378662]},{"row":8,"column":4,"elements":[0.17105591297149659,-0.718350887298584,0.893089771270752,-0.34098517894744875,-0.22351253032684327,0.043576598167419437,-0.6756680011749268,0.13400156050920487,0.8971884846687317,-0.07121169567108154,-0.061407819390296939,0.8841025829315186,-0.044690489768981937,-0.18257153034210206,-0.9600872993469238,0.7945630550384522,0.555530309677124,-0.702765941619873,-0.2492130994796753,0.9924321174621582,-0.37100091157481077,-0.7856552451848984,-0.5824356079101563,-0.7042244137264788,-0.1280527561903,-0.08224713802337647,-0.6427004337310791,0.36485978960990908,-0.9207148551940918,-0.9489138126373291,-0.07707154750823975,-0.9433310031890869]}],"biases":[{"row":1,"column":8,"elements":[-0.39167091622948649,0.11698476830497384,0.010784754646010697,-0.9674453735351563,0.976123571395874,0.4760493338108063,0.18783724308013917,0.27594324946403506]},{"row":1,"column":4,"elements":[0.7519357204437256,0.7225509248673916,-0.14964625984430314,0.20901401340961457]}],"inputSize":7,"hiddenSize":8,"hiddenLayers":1,"outputSize":4}