{"weights":[{"row":11,"column":16,"elements":[1.3310813903808594,0.1989457905292511,-0.5712211728096008,-1.3800534009933472,2.253772735595703,0.3516707122325897,1.7269784212112427,0.597494900226593,-0.3032986521720886,1.7881487607955933,0.8197771906852722,-0.7930866479873657,0.24227763712406159,-0.6933461427688599,0.5753964185714722,2.6097517013549806,0.24325375258922578,-1.7244338989257813,1.3527449369430543,0.0403050072491169,-0.31921371817588808,1.8945889472961426,1.9272301197052003,1.5456329584121705,0.5686178803443909,-0.2806253135204315,2.083674192428589,-0.8500961065292358,2.4690330028533937,1.9592726230621338,-1.5609772205352784,1.857808232307434,-1.7120025157928467,1.3383116722106934,-2.307070016860962,-1.0677131414413453,-1.1155375242233277,0.00016103434609249234,2.2339694499969484,-0.6253321170806885,-0.9995553493499756,1.8545794486999512,-0.7416804432868958,-3.1044812202453615,1.5939013957977296,-0.24576763808727265,0.4309312105178833,1.1383745670318604,1.115134358406067,0.20622682571411134,-1.0915459394454957,-0.08169418573379517,1.6602821350097657,1.2075724601745606,-1.2864353656768799,-3.493527412414551,0.7895026206970215,-2.051215171813965,-0.8899900317192078,1.744914174079895,1.364790439605713,-0.0829169750213623,-3.0465259552001955,-0.7972763776779175,-0.06049099192023277,-1.8093258142471314,2.269001007080078,-0.5869389772415161,-2.312680721282959,0.31551414728164675,-0.5187466740608215,-1.1155200004577637,-1.9300298690795899,-0.026968853548169137,-2.8161439895629885,-0.9080217480659485,-0.5112575888633728,-0.1283571869134903,-1.7764626741409302,0.5874431133270264,1.3310452699661255,-1.006561040878296,0.13748283684253694,1.4713598489761353,-0.6093767285346985,-1.4116923809051514,-1.5706568956375123,-0.9010087251663208,1.65333890914917,2.3962090015411379,3.1926469802856447,0.6852743625640869,0.3708833158016205,0.9145475029945374,0.1738835871219635,-1.0919454097747803,-1.6205010414123536,2.0423479080200197,-0.30027320981025698,0.7252349853515625,-0.29589852690696719,-0.35825517773628237,0.9243512153625488,-0.36964812874794009,0.033474598079919818,-0.8620461225509644,-1.5854538679122925,-1.105849027633667,1.8419702053070069,-0.3950049877166748,-0.07284630089998245,1.6779532432556153,1.2385635375976563,-0.49616843461990359,-0.4680601954460144,1.6437464952468873,-0.28954821825027468,2.5192291736602785,0.16376270353794099,-0.1198849231004715,0.017092620953917505,1.4158815145492554,1.5388216972351075,1.916483998298645,1.0300633907318116,-0.3265627920627594,-0.6444160342216492,0.5610364079475403,0.45620012283325198,-0.16262319684028626,0.5432655215263367,-0.7215937972068787,1.184227705001831,2.0466318130493166,-1.6769896745681763,0.2858821749687195,-0.29967015981674197,-2.242608070373535,0.9524580240249634,1.9987624883651734,1.5790883302688599,0.9533665180206299,-1.0728267431259156,-0.21102026104927064,-1.3019417524337769,-0.14786432683467866,-0.5717037916183472,0.11062268912792206,-1.2687687873840333,0.4527876079082489,-0.7264800667762756,-0.6874147653579712,-1.020423412322998,-1.798835277557373,-1.0635842084884644,-2.0872583389282228,-0.18963104486465455,-1.066751480102539,-0.710106611251831,2.017531633377075,1.0586764812469483,-0.668238639831543,-1.167042851448059,-0.46477413177490237,-2.0254032611846926,-0.7374746203422546,0.6538271307945252,2.4706945419311525,0.6230547428131104,1.4257018566131592,-0.8788270950317383,1.309612512588501,-1.23137629032135,1.0131735801696778,0.15523415803909303,-2.5882747173309328]},{"row":16,"column":3,"elements":[1.1712491512298585,1.3406867980957032,0.6329573392868042,0.1525411754846573,-1.6869151592254639,-0.8525059819221497,1.922236442565918,-0.816922664642334,-1.1504542827606202,-1.4719775915145875,-2.3250467777252199,0.46173056960105898,0.8909032940864563,-1.3155765533447266,0.8717852830886841,0.47257816791534426,1.3823137283325196,0.5010859966278076,1.5742402076721192,-0.5258357524871826,-2.3798418045043947,1.6974221467971802,-2.9473509788513185,0.657800018787384,0.5337878465652466,-1.0949329137802125,0.8076906800270081,1.2747538089752198,0.16639775037765504,0.9007197022438049,1.1403229236602784,0.02794284000992775,1.5587804317474366,-0.9051163196563721,0.6298255920410156,1.8479379415512086,-0.8051745295524597,0.6648898124694824,0.7273754477500916,-0.39198586344718935,1.4883158206939698,0.3006976246833801,0.520919144153595,-1.8988279104232789,-0.2799026370048523,3.039320945739746,1.6338789463043213,0.7268607020378113]}],"biases":[{"row":1,"column":16,"elements":[-2.211897611618042,1.4562532901763917,2.0604615211486818,0.231232151389122,0.42038199305534365,-0.10205788910388947,1.3146023750305176,-0.16448381543159486,0.23699522018432618,0.8760895729064941,-0.9480962157249451,-0.6677786111831665,0.5253143906593323,-0.9336947202682495,1.8528090715408326,-0.5054190158843994]},{"row":1,"column":3,"elements":[1.7057747840881348,-0.2874334454536438,-1.3360642194747925]}],"inputSize":11,"hiddenSize":16,"hiddenLayers":1,"outputSize":3}